-1.342337951064109802e-02,-3.848460037261247635e-03,4.874447826296091080e-03,-1.819073595106601715e-02,-3.789571821689605713e-01,6.063607055693864822e-03,-1.242114696651697159e-02,2.070572674274444580e-01,3.269002139568328857e-01,-1.839817762374877930e-01
3.822479862719774246e-03,2.078035026788711548e-01,-6.783597171306610107e-03,1.304558757692575455e-02,1.760976165533065796e-01,-1.519760489463806152e-02,3.739181207492947578e-03,-8.257795125246047974e-02,-1.516311466693878174e-01,-3.882913663983345032e-02
-1.168543007224798203e-02,-2.826149947941303253e-02,2.109541557729244232e-02,-4.768732190132141113e-02,2.656413912773132324e-01,4.305088892579078674e-02,-4.825071245431900024e-02,-9.595511108636856079e-02,-2.230416238307952881e-01,-3.801353648304939270e-02
2.606953494250774384e-02,-8.477225899696350098e-02,-8.999540805816650391e-01,-1.386390328407287598e+00,3.300857543945312500e-01,9.829489588737487793e-01,-2.256658226251602173e-01,2.739361822605133057e-01,-5.552132427692413330e-02,-1.118476986885070801e-01
-7.753811478614807129e-01,-7.648265957832336426e-01,4.509368538856506348e-01,1.785709142684936523e+00,-7.980740815401077271e-02,-4.911718070507049561e-01,-4.064895212650299072e-01,6.019853521138429642e-03,-2.732364833354949951e-01,-5.497799515724182129e-01
2.177416384220123291e-01,1.063862442970275879e+00,-5.535230636596679688e-01,8.264715671539306641e-01,-2.961697578430175781e-01,8.829857707023620605e-01,9.347853064537048340e-01,-6.989807486534118652e-01,5.622657537460327148e-01,6.165668368339538574e-01
1.708841025829315186e-01,3.220784962177276611e-01,1.188745200634002686e-01,-3.732981383800506592e-01,-3.575941026210784912e-01,2.522507309913635254e-01,3.579552173614501953e-01,-1.918362379074096680e-01,-1.940981000661849976e-01,-4.093898534774780273e-01
-9.265297055244445801e-01,2.463084831833839417e-02,-2.373496890068054199e-01,6.832698583602905273e-01,1.679288864135742188e+00,8.302375674247741699e-01,6.292682141065597534e-02,2.197710126638412476e-01,8.193596005439758301e-01,3.159888982772827148e-01
-8.800568580627441406e-01,-4.341490566730499268e-01,-2.420396953821182251e-01,3.315909504890441895e-01,2.094761133193969727e+00,-2.710200846195220947e-01,-5.125299692153930664e-01,-2.257906645536422729e-01,3.674466311931610107e-01,-5.503599047660827637e-01
2.013431787490844727e-01,3.926226198673248291e-01,2.418075799942016602e-01,-3.114175796508789062e-01,2.651927247643470764e-02,-3.004759848117828369e-01,1.447919309139251709e-01,-2.448475807905197144e-01,-9.108635783195495605e-02,1.010789349675178528e-01
1.058103203773498535e+00,-1.466518193483352661e-01,9.176805615425109863e-01,-4.097958803176879883e-01,-1.287808895111083984e+00,-1.201730892062187195e-01,-5.141884684562683105e-01,8.853123188018798828e-01,-3.978680372238159180e-01,-8.983990550041198730e-01
-2.820402383804321289e-01,5.773446559906005859e-01,1.144859418272972107e-01,9.616571664810180664e-01,-1.480712592601776123e-01,2.892826125025749207e-02,5.838548541069030762e-01,-2.031749188899993896e-01,-1.902313344180583954e-02,3.106127083301544189e-01
-1.261017769575119019e-01,8.259647339582443237e-02,1.630440801382064819e-01,-3.550781011581420898e-01,1.195668950676918030e-01,1.892415732145309448e-01,2.820892035961151123e-01,-3.366766870021820068e-02,2.581995725631713867e-01,-2.901256084442138672e-01
2.797826528549194336e-01,3.129180371761322021e-01,4.394563734531402588e-01,6.142710894346237183e-02,-1.668771728873252869e-04,1.988532394170761108e-01,-2.213791161775588989e-01,-5.220007896423339844e-01,-2.587216198444366455e-01,-2.259819656610488892e-01
6.236790120601654053e-02,2.348210811614990234e-01,3.193419277667999268e-01,-3.257998526096343994e-01,-2.723630666732788086e-01,4.083032608032226562e-01,2.471538782119750977e-01,-9.121022373437881470e-02,8.312685787677764893e-02,-5.530092120170593262e-01
1.681600213050842285e-01,-8.633102178573608398e-01,5.348060131072998047e-01,2.633664291352033615e-03,2.751796841621398926e-01,-5.261303782463073730e-01,-3.563652336597442627e-01,3.884059786796569824e-01,-4.494750499725341797e-01,-7.380124330520629883e-01
1.777187347412109375e+00
-1.624922871589660645e+00
1.374708056449890137e+00
-8.619602918624877930e-01
-1.181611537933349609e+00
-1.415952920913696289e+00
-1.608744859695434570e+00
1.383205771446228027e+00
-1.359208464622497559e+00
-1.384872794151306152e+00
5.567962527275085449e-01
